solver_type L2R_LR
nr_class 5
label 1 2 3 4 5
nr_feature 512
bias 0.5
w
4.394043953192028e-07 -3.486567609567288e-08 -1.529454982222929e-06 -1.841351242670363e-07 -5.059422512276315e-07 
-2.174386904449736e-05 -1.152935133112347e-05 1.736777340480038e-06 6.807938665440517e-06 -1.414169572402025e-06 
-1.927365885319532e-05 -3.141279539094402e-06 -4.56101453788664e-08 2.121747005660354e-06 -6.400261756928911e-06 
-3.261980401721544e-06 -7.164567638778814e-07 -2.73250893847859e-07 1.255253756872901e-06 -7.629986196931968e-06 
-1.943482155288684e-06 -3.562612367214729e-07 2.632061812041768e-07 -3.28138793032119e-08 -2.13054730146732e-06 
-9.207850904388241e-07 -1.553131336278137e-07 1.761950332598828e-07 -1.295884233686192e-07 -3.840678156372392e-07 
-2.173073302435094e-07 -4.06692082974268e-08 2.275600231164867e-08 -2.080613001808206e-08 2.267182253796382e-07 
-9.313365593296376e-08 -1.455148600153073e-08 -2.388966073456503e-08 2.5993208710788e-08 -3.597983736226271e-08 
-4.926399377862782e-05 1.215210251877298e-05 -6.751474025641586e-06 1.186169415396684e-05 -2.10074382273575e-05 
2.270609538037221e-06 6.929210982973155e-06 -1.155907362573706e-05 -3.470397422533113e-05 -8.466070262157513e-06 
-4.220282314535859e-05 -6.583031707460552e-06 1.028987906357097e-05 -1.777233963239976e-05 4.067481844286421e-05 
-1.665415187994189e-05 -1.831141856500711e-06 1.951826199341961e-06 -3.950377527328125e-06 5.01470075053558e-05 
-3.470177094077779e-06 -1.024517885525802e-06 -3.961430103059936e-07 -6.972546988216453e-07 3.122463741715867e-05 
-8.032175161569825e-07 -2.754635147475234e-07 -4.125501914681557e-08 -4.029986977496165e-08 6.296494309720243e-06 
-3.792691528441549e-07 -8.476229495927882e-08 4.17028487035161e-08 -6.1907766723125e-08 1.168072783666329e-06 
-1.587887324139523e-07 -3.64885806804249e-08 1.450082516274967e-08 -3.56629998496492e-08 7.344561711276823e-07 
-6.607733985025386e-06 -2.166952647071336e-06 8.945178900837949e-07 1.123897544177417e-06 8.878467288323274e-06 
1.827903853620192e-06 4.295347861774437e-07 -1.224949159627888e-07 1.218139133726586e-07 -1.254851373978114e-06 
-4.942117138035048e-06 9.600500910559377e-07 -8.244783528502685e-07 -2.651943610821849e-07 5.300046444735434e-06 
-4.288204413258498e-06 -3.865060763963415e-09 -1.554832441281983e-06 -2.347696865370055e-06 4.382392767302782e-05 
-6.280150033982817e-06 -8.179352394136354e-07 -6.030685671246006e-07 -1.628388444977334e-06 4.858350970940287e-05 
-2.278587520780749e-06 -4.254755939499679e-07 -2.0844373038636e-07 -5.622650935152415e-07 1.879354472733699e-05 
-9.187413168106115e-07 -1.500520543827565e-07 -1.707105966599889e-07 -2.698439354246433e-07 4.164692398965144e-06 
-5.560443314974271e-08 -2.520342317091334e-08 -1.630354688382286e-08 -3.693249188674424e-08 4.998038424502221e-07 
-4.405101938928664e-06 1.069399595200556e-06 2.270611193230997e-07 -4.235153132080141e-08 -4.147879219256413e-06 
2.068495262658617e-06 6.573333592389257e-08 -4.160508335563135e-08 7.243321106010543e-09 -3.224182258731351e-06 
-3.099491614468361e-07 3.237414590793404e-07 1.549023651440539e-08 2.072379327633248e-07 -3.172776893733949e-06 
-1.535967593531393e-06 -3.613898234764769e-07 -6.179971640981645e-07 1.084418586532788e-06 -9.951965668965046e-06 
-3.098536048280432e-06 -6.28270513897225e-07 -1.420710678857023e-06 1.469419083488233e-06 7.133043949000525e-06 
-5.354804147791118e-07 -1.344514651423423e-07 -2.378975159085689e-07 -4.428862767056704e-07 1.066378984466855e-05 
-2.301380068320914e-07 -8.531261005481405e-08 -1.110352759467291e-07 -2.795515822999837e-07 5.521526265533276e-06 
-9.724146118138232e-08 -1.826957886452597e-09 -5.605775019618965e-08 -6.855832443263964e-08 6.132433855186939e-07 
-1.334245423766667e-06 2.233883293354383e-07 2.681622537910612e-07 -3.666513653802509e-07 4.923362813692798e-07 
-2.673200625889338e-07 3.063980587580028e-07 -2.415417666213055e-08 1.056723098161533e-07 -1.111217760402283e-06 
5.404017919002505e-07 7.39339117863226e-08 -1.462701686656583e-08 -2.568450688534796e-08 -8.189528592173358e-07 
-4.173898628177172e-07 2.452991431662453e-08 -3.733549506069133e-08 2.490863957757229e-07 -1.47249959326276e-06 
-1.469406931558758e-06 -2.429939690435118e-07 -4.730882310455861e-07 8.445843817937399e-07 -7.219465978416431e-07 
-1.572868446257054e-06 -2.839640426519069e-07 -3.72184234400586e-07 5.870749381871656e-07 3.637883944503504e-06 
-7.913063656029897e-07 -2.281850971621948e-07 -3.313560585799956e-07 2.320818001625852e-07 4.774927099260918e-06 
-1.738103644175248e-07 -1.726663350924475e-07 -1.263536069015811e-07 -1.209235721218287e-07 4.638864573868384e-06 
-5.172038769697729e-07 -1.858366956301558e-07 3.29180285850271e-07 -4.548264204901444e-07 9.011455152722273e-06 
-1.808038311195661e-07 -4.114523836744125e-08 -2.501243337295706e-08 7.687447376276235e-09 2.19048412363334e-06 
3.538850912820878e-07 2.836194812502618e-08 -9.406596134507439e-09 -3.294845337582256e-08 -1.688660193898573e-07 
4.678309976351519e-09 5.672839071269954e-09 -1.039772722599873e-09 1.78796615265305e-08 -2.917080378152177e-07 
-1.215927957670437e-07 -6.519728315801113e-09 7.070291829667436e-09 -5.541709767118877e-09 3.77807104219702e-07 
-3.124842010763466e-07 -1.172547709988704e-08 -1.040469264714834e-08 4.87319045907086e-08 2.894227400010596e-07 
-2.513623618214982e-06 -5.224978017399543e-07 -7.578033360654062e-07 1.54661273179982e-06 8.60402639552047e-07 
-1.470140453674979e-07 -1.717403117897491e-07 -9.107781860827657e-08 -1.984685531873494e-07 6.247217477487283e-06 
-1.670825106465864e-06 -7.308235459556476e-07 2.714106967622048e-07 -8.671808728221843e-07 3.192533640288786e-05 
-4.849258787204643e-07 -1.715382871323705e-07 -6.013329962358039e-08 -4.172618110820769e-08 6.631516033846246e-06 
-3.943082719292018e-08 -1.481091448291292e-08 -1.195345780050375e-08 1.131144187112277e-08 5.127348957880141e-07 
-8.934249753262295e-10 -6.341492123173736e-10 -2.414509543662618e-10 1.776052405854807e-09 5.916179918371786e-09 
-2.501921312335546e-08 -4.167546960976204e-09 -9.118715190580271e-10 3.229616147207191e-09 1.151405259140845e-07 
-1.525992806428232e-07 -2.365594908516691e-08 -2.851976623851029e-08 3.25617061339434e-08 7.025912721267049e-07 
-3.524640211118561e-06 -7.370697363137797e-07 -1.423211360901969e-06 2.584190527165165e-06 -1.840573863559096e-08 
-1.694630208313932e-07 -9.257492602346571e-08 -1.127857094037628e-07 -8.604524324155684e-08 4.409846273954235e-06 
-2.413807002184148e-08 -3.074076797085897e-07 6.800921602179302e-08 -3.899479873753728e-07 1.213920344872951e-05 
-1.215197705270408e-07 -3.231533072389608e-08 -1.158143287025252e-08 -3.157669894910238e-08 1.928885881237332e-06 
-1.72353505712265e-08 -4.016833313136108e-09 -3.828833370178226e-09 1.742168288348614e-09 2.315440943663795e-07 
-2.443147930529484e-09 -7.839466162290027e-10 -1.601219051368079e-09 3.668575339713209e-09 6.2240656399078e-09 
-7.627509001608813e-09 -9.12602354208664e-10 -1.485437523826374e-09 5.938773836685384e-09 -5.012036441686836e-09 
-2.168718887971921e-08 -3.775974468587456e-09 -4.662061687257792e-09 1.008111864585884e-08 2.175691563147119e-08 
-1.162146496001648e-07 -1.793512492468088e-08 -4.557055183955313e-08 6.900215952875282e-08 4.733687519518209e-08 
-6.618136482466475e-08 1.750899647806467e-08 -1.049272758997994e-07 -1.112386487544516e-07 1.944764827604308e-06 
-1.240183353961042e-05 1.613796261015978e-06 6.083807967086809e-07 -1.167308948130796e-06 1.512966694099951e-06 
-3.231264073372545e-05 -5.20609318940419e-06 1.442506467130148e-05 -1.620672046430023e-05 1.975730960817043e-05 
-3.70762887452144e-06 -1.543531388024418e-06 3.495005239725588e-06 -3.578440038665535e-06 -1.557218174461638e-05 
-6.323913869798273e-06 -1.130455079807173e-06 3.064553738556227e-07 3.134980916408316e-07 3.718689253775862e-06 
-1.734441059872613e-06 -4.728103398671168e-07 -8.236936928233152e-07 8.747209872739799e-07 -4.010486651738358e-06 
-1.004484320544949e-06 -5.905259886036837e-07 -9.057198890104508e-07 9.755934001158822e-07 -3.005111331261822e-06 
-2.048688750909326e-07 -1.339644274394853e-07 -1.557598664452715e-07 -1.526859088124409e-07 1.707932596905128e-06 
-1.673376777687595e-07 -1.039029910206418e-07 -5.856197971673844e-08 -6.472479397385874e-08 2.272978321942154e-06 
-2.514005087236778e-07 -2.210232062348766e-05 -8.788148957141151e-06 2.334393723602753e-06 -3.633736903000256e-06 
1.018824569354265e-06 4.985514625667452e-07 -1.605498423870359e-06 -4.780139179290732e-07 8.582681752927424e-07 
-2.673597020006268e-06 -2.045649892869686e-05 -4.059753845344469e-06 1.400210292720698e-06 1.187993921866393e-06 
-1.587072333579044e-05 -2.600968720196309e-06 5.505519533023363e-07 7.646220210899606e-06 -2.5770806248323e-05 
-7.212481487688401e-06 -1.976446765922092e-06 -3.319991494731095e-06 6.407903972941501e-06 -9.456406729684052e-06 
-1.526656604305755e-05 -7.932529978192235e-06 -1.432913141319699e-05 1.804634729575036e-05 -2.877895224231515e-05 
-3.586530734209208e-07 -5.558823946925419e-08 -1.87080130869838e-07 -9.869744663454658e-08 4.346345074443486e-06 
-9.661825582212726e-08 -3.884908858842715e-08 -8.228414511937955e-08 -1.884862588462894e-07 2.976000124620522e-06 
-1.378707429278037e-05 -1.3471396779618e-06 4.248915783511444e-08 5.064704332101383e-06 -3.109382007545793e-05 
-4.37155063757012e-05 2.901396786502742e-05 -4.896330218603797e-06 -6.459221270046931e-06 -1.178780787839583e-05 
-1.251414486404451e-06 9.762779222550998e-06 -9.229081031150581e-06 -1.13075823122478e-06 -2.37833426416199e-06 
-1.8369039198435e-05 1.508398614037402e-06 -5.090656433574141e-07 -7.145969013377268e-06 1.466294171479724e-06 
-7.793760387343254e-06 -4.655391475068434e-07 1.219932483757917e-06 -1.878386131131678e-06 1.52961420080342e-05 
-9.508561273824236e-06 -9.655032660639886e-07 -2.218805124001751e-06 8.619134950821509e-06 -1.184371698099405e-05 
-1.287895302955059e-06 -9.601001968176887e-08 -2.144074057234071e-07 1.223113731590341e-06 -1.822653103405036e-06 
1.138372566454613e-09 -3.034791337345722e-08 -6.421800623553778e-09 -7.439039071510874e-08 4.97984982921756e-07 
-2.52418911936583e-06 -1.101756587244451e-06 3.91216167228721e-07 7.947140709537538e-07 -4.766880982357322e-06 
-4.104790956274102e-06 -1.948061789529634e-06 5.42408970127243e-07 1.860311963383795e-06 -1.068276344936598e-05 
-4.779969539112919e-06 1.674407983741501e-06 -9.386638128359741e-08 -1.393254220500945e-08 -1.413145603294122e-05 
-6.11492339302122e-06 2.578170339903155e-06 3.125793169263924e-07 -5.848632583832765e-07 -1.458768491040061e-05 
-2.435720218042161e-06 5.650234281076123e-07 -1.459238798714383e-08 -4.156355411227355e-07 2.98963851530955e-06 
-2.416006532688853e-06 -6.081728478735191e-08 1.625423697872863e-08 -6.726286098849902e-07 1.376516753275889e-05 
-4.496769720528327e-07 8.226015909433352e-08 4.082682972316444e-08 -2.997808931707442e-07 4.206830684457436e-06 
8.181173020899886e-07 1.552041740416726e-07 -1.075175478309558e-08 -1.26929759919769e-07 -1.652714218021123e-06 
-9.195323122588612e-07 -1.630088452350653e-07 2.4163511640844e-07 6.998957617737392e-08 8.796815659766574e-07 
-2.024217502461144e-06 -1.401448035164539e-07 2.21142976102245e-07 4.122509430426115e-07 -1.914889161835339e-06 
1.656575438921741e-07 2.997293998489308e-08 -5.361775156312378e-08 1.746216226865115e-07 -1.296310445633352e-06 
-6.113548764672594e-07 3.851980301929968e-07 2.103093879656296e-07 1.820917022406638e-07 -3.851911481990427e-06 
-1.456548353279392e-06 3.503772307165643e-07 3.283064492948361e-08 2.328180767940469e-07 -5.754987582700714e-07 
-1.115771589153522e-06 1.744650610445297e-07 1.577750696188505e-07 -9.278188137400173e-08 3.550276561386759e-06 
-2.560731268592678e-07 1.140364617979099e-08 7.192486202559566e-08 -2.730026838244531e-08 7.268640743902584e-07 
7.997343865652646e-07 8.144613120619851e-09 -3.990545543201363e-08 -1.880768365060668e-08 -1.241224804280559e-06 
-8.63877945953229e-07 -1.996283051342514e-07 8.933597041525496e-08 -9.987505639945428e-08 6.961281284587231e-06 
-1.257102587855905e-06 -2.335575202758878e-07 5.009458540766492e-09 -8.634523286338528e-08 1.112711747116971e-05 
-2.39114482615034e-07 -2.500060656103732e-08 -4.344139201309073e-08 9.233020543679192e-08 8.120824736898492e-07 
-1.667733478264115e-09 3.314424010893758e-08 3.465852401480133e-11 2.699508409109273e-08 -5.393855453141739e-07 
-3.973157040858025e-07 6.202877387557654e-08 2.299112101796291e-08 6.358472204839093e-08 -9.440205009730168e-09 
-8.148465580109e-07 7.173047414188601e-08 1.380759873067892e-07 -1.807390747727984e-08 -3.810061354507699e-07 
-1.040120217098851e-06 -8.052870010470197e-08 1.35416248160476e-06 -3.66417748734883e-07 -3.792078837992104e-06 
-1.893861355081316e-07 -5.557502539442448e-08 3.034268570857074e-07 -4.262363705798857e-08 1.129033356491374e-06 
-1.221483704086381e-06 -3.723727866377041e-07 4.739590144909089e-10 -2.872962426132132e-07 1.636757486246509e-05 
-1.446392487804668e-06 -4.34407319983427e-07 -6.637055644428435e-08 -3.497390085273375e-07 2.172209606668129e-05 
-2.394656018721667e-07 -4.491328407815031e-08 -2.199904477985286e-08 -5.966053972943463e-08 3.586976361599962e-06 
-3.013138705838456e-08 -1.062997403466729e-09 -9.293524489350582e-10 1.441333389313616e-09 1.276955964851181e-07 
-5.189052044325766e-08 1.463781826437227e-08 1.842405482242671e-09 2.063133194494066e-08 -2.069080547307643e-07 
-2.300923962493877e-06 -2.210027432932673e-07 -5.944674265271425e-07 1.183640428905829e-06 -6.758869407764161e-08 
-1.639687656753523e-06 -2.41837238261667e-07 -4.997822916741229e-07 9.715813087772672e-07 -1.772679764509893e-07 
-2.804087633244207e-07 -3.334555590050495e-08 -6.286412026426031e-08 1.078544660572665e-07 1.202797056059739e-06 
-3.829953645044404e-07 -1.461427066453256e-07 1.721073537370441e-08 -1.428510343488633e-07 5.838393414630973e-06 
-3.789762811823847e-07 -1.213232485358998e-07 1.983641293586584e-08 -1.288788844200354e-07 5.471206152228618e-06 
-7.833117270436203e-08 -1.899286286845861e-08 -6.906986771958034e-09 -1.657967781591525e-08 1.091743997096594e-06 
-1.540231643912097e-08 5.405030926100097e-11 7.545898251454766e-11 -2.413568716981498e-10 8.343864699100646e-08 
-5.215439432935411e-09 -3.885852951329399e-10 4.458897184838339e-10 2.503202854763551e-09 -1.548088660458615e-08 
-1.224994128580143e-07 -2.814038441778991e-08 -3.212978322456761e-08 8.613450032876081e-08 -2.082311248008929e-07 
-2.748356929533593e-06 -6.086829955297602e-07 -1.098776776300511e-06 2.065911477444655e-06 -4.906993625125032e-07 
-1.992942552800672e-07 -5.455468432967082e-08 -8.071812008855713e-08 3.682631419616555e-08 9.296404431920999e-07 
-1.909808180577905e-06 1.610261987115387e-05 1.012359541506003e-05 -1.25199656549518e-05 -2.755440949919752e-05 
-6.870529561838971e-06 8.58151382500395e-07 1.01590090608241e-06 -2.515700727706452e-06 3.846943294660061e-05 
4.885629940053405e-06 5.1667304465987e-09 6.596609868320542e-07 -9.173526234429984e-07 -1.041506372557455e-05 
7.28220569795411e-07 -3.440510305617635e-07 2.50724530899149e-07 -1.739711303386923e-07 -5.066736985741726e-06 
-4.15475841196498e-07 -7.947753688934963e-08 1.534812830944079e-08 6.993712533202032e-08 -8.749593873784235e-07 
-6.432570152327066e-08 -3.680827383615145e-09 6.439558462728798e-09 -1.167754331843939e-08 -1.199076145598083e-07 
-7.236131624099808e-08 -4.015333133398886e-08 -3.266484556392072e-08 -4.903839476881663e-08 5.190694338255489e-07 
-1.545881953647496e-07 -1.04420019946769e-07 -1.069000001661213e-07 -1.558236123691931e-07 2.197647275212854e-06 
-3.65080402263281e-06 -6.074196040092042e-06 6.644103519335581e-07 1.206052244456254e-05 -1.648890247937766e-05 
-2.873659308559671e-06 1.782139540457522e-06 9.409899012737971e-06 1.073494453178412e-06 2.888077484803944e-07 
-1.525682610993454e-05 -9.430016839352211e-07 1.39316524972566e-06 -7.046487669235894e-06 2.422690680609374e-05 
7.142669004053339e-06 -5.209598151856395e-07 -5.272650618509287e-07 -1.622974523386347e-06 -1.024260352817976e-05 
6.390709648738246e-08 -1.080462611599715e-07 -3.878864554355942e-07 9.368975733831201e-08 -1.4295465954785e-06 
-1.822767932294663e-06 -1.122645397363693e-06 -1.794905554169343e-06 8.698485229320674e-07 3.961098419892853e-06 
-1.951871677997153e-07 -2.37345911617033e-07 -3.426812949832481e-07 -4.074856730051197e-07 4.288069289713595e-06 
-6.109112226888561e-07 -4.608880906426218e-07 -5.954187889227653e-07 -8.793731539468007e-07 1.020681295584241e-05 
-6.24952037200251e-06 9.669186831911792e-06 -5.540790831234647e-07 -1.250726788474295e-06 -2.862273308215245e-05 
7.310330194673385e-06 -2.04942050708652e-06 -1.625161933937175e-05 5.791417149086224e-07 -2.305305646356298e-06 
2.60394125933346e-07 -3.955561833828416e-06 -1.159118802864665e-05 -6.589159234794798e-06 5.735652003502838e-06 
-6.373522207973642e-06 -8.038630633618114e-06 -4.878722893421875e-06 -5.943377270382755e-06 8.174569029126769e-06 
-1.100068608292628e-05 -1.802779604760359e-07 -1.16092123169924e-06 1.682361494128341e-06 9.583550004286877e-08 
-1.547348134119145e-05 -2.657841081794431e-06 -4.654635600245952e-06 1.13316852320389e-05 -2.682193531520745e-05 
-2.152464346942044e-06 -6.462630664338282e-07 -1.078012278543946e-06 2.073358995861837e-06 -3.938035294808236e-06 
-1.210160582238249e-07 -6.62761250561611e-08 -1.684575472753685e-08 -1.789703344233045e-07 1.159607136942426e-06 
-3.130046805614481e-06 2.309917949580633e-06 2.056964308234825e-07 -7.367051107441814e-08 -8.582892953965097e-06 
-1.738288537376942e-05 9.694982708109256e-06 -6.667067350533756e-07 2.134773162891971e-06 -3.637160295265199e-05 
-2.846376479135452e-05 8.273533265363301e-06 -3.378912937742295e-06 8.436205301303766e-07 1.24073880087502e-05 
2.605860210974157e-05 6.907010714496166e-07 -2.843372391756902e-06 -1.144949508862037e-05 1.718962116452472e-07 
-2.0792045574082e-05 -2.087425042526712e-06 -2.81282304007915e-06 -6.737431521216846e-07 1.415325019698471e-05 
-1.022389033475584e-05 -5.00674878740018e-07 -1.285749409064096e-06 -4.046534510507576e-07 6.288681060543252e-06 
-5.302050676965046e-06 -7.486041895779687e-07 2.871280580705404e-07 1.431496153342559e-07 3.399179459652507e-06 
-8.619466708711799e-07 -1.044381686397666e-07 2.151993510531283e-08 -2.642666631634262e-07 2.145734469394161e-06 
-4.541608568503664e-07 -7.44726277058925e-08 1.897132163571633e-07 1.482452712727229e-08 -1.004912153474002e-06 
-2.307093502088837e-06 -3.484934642289473e-07 -5.477491343905417e-08 9.247265627090028e-07 -2.888018543329092e-06 
-2.684140910055003e-06 -9.614796145881627e-08 -1.44410310154607e-07 -1.848381443213595e-07 3.553071107142253e-05 
-3.913052515603876e-06 -3.440878377905112e-08 1.842450649869685e-07 -6.367262263694331e-07 3.105268404565806e-05 
-3.304313018506614e-06 1.411354280740366e-06 1.169629281000917e-07 -4.984342935725197e-08 -1.338939843794826e-07 
-8.667632611827957e-06 -2.917858998989199e-06 -3.244172861901617e-06 7.894034872498755e-06 -1.764002190177146e-05 
-1.84382537838126e-06 -1.975873357047978e-07 2.426908302112311e-07 5.790391757753399e-08 -3.232510534417206e-06 
1.73649414269939e-07 -2.030391491189646e-08 7.935004659666555e-08 -1.106592246486868e-07 -2.438461191421964e-07 
-3.12216526828872e-07 -5.027111466171209e-08 -2.518956386062136e-08 1.186122313092488e-07 1.364308678430905e-07 
-1.309686360461257e-06 -2.286161283628825e-07 -2.200186834566016e-07 4.193042559459948e-07 3.292970147576809e-06 
-9.355476361576089e-07 -9.051707658483635e-08 -8.148655890202602e-08 1.050947373114597e-07 4.260052802077056e-06 
-2.235728536439075e-06 -3.863587835937683e-07 -7.177151558183736e-08 -4.084356769244706e-07 2.517904839195358e-05 
-1.11434805518448e-06 1.401270464552513e-07 2.649689165765302e-07 -2.310360016811349e-07 4.746035085117132e-06 
-4.276923843032862e-06 -8.613274405105541e-07 -1.224751329313721e-07 1.544739137760847e-06 -6.566405867632285e-06 
-1.841913499299294e-06 -2.015676938828552e-07 3.385801386277449e-07 4.326283413682301e-07 -2.772232583793313e-06 
-1.843601172891802e-07 -6.848695298491795e-08 -8.338403032202251e-08 3.301210823170066e-07 -1.253965589824357e-06 
-1.983207174969993e-07 -4.606874658458174e-08 -4.388720280101111e-09 4.376367670369912e-08 7.124465236254755e-07 
-1.200560155038216e-06 -2.962686995498001e-07 -6.888821230192576e-08 1.130671653055191e-07 8.285028271966194e-06 
-7.70175286309804e-07 -2.051826553068101e-07 -7.156883477616243e-08 -9.994279688573955e-08 9.368763084769102e-06 
-1.473635842918581e-07 1.012561248762738e-08 -6.568614048342427e-09 -2.046464982842183e-08 1.250870308942635e-06 
-4.619347372054024e-08 -7.932628912996832e-10 2.459469401474279e-08 -2.227813715757031e-08 4.524055690721474e-07 
-5.198036704695814e-07 2.428089499461613e-08 1.789095565327244e-08 1.306749922584107e-07 -7.742206587336509e-07 
-6.229876838184093e-07 5.92370079990943e-08 5.722970860757901e-08 5.616527601914478e-08 8.032916737913088e-08 
-1.89408491558961e-07 -2.803688605826042e-08 7.270000548379719e-08 1.263888768024777e-08 -5.882353138333116e-07 
6.539028550908413e-09 -2.84123802654444e-08 1.966562266073259e-08 -1.931031854368172e-08 3.90786644918576e-07 
-4.129667898374123e-07 -1.406550488964979e-07 1.271713080843223e-07 -1.565310159126992e-07 3.729336741142842e-06 
-3.586295138788583e-07 -1.18501689155569e-07 1.344273530850684e-08 -9.100077632120732e-08 4.616827918819406e-06 
-9.940950993452778e-08 -1.882253465359254e-08 -4.405446595316046e-09 -1.40468743952559e-08 1.087152939419418e-06 
-3.006194697951299e-08 2.691704194341293e-09 -2.193499846773632e-09 5.546401125566326e-09 4.16834258972148e-08 
-1.339385943079091e-06 -2.772413817752455e-07 -4.86984061992371e-07 9.79771042679833e-07 -8.031352922770763e-07 
-8.091554718014596e-07 -1.468490510645371e-07 -2.408393162784735e-07 5.164986635352162e-07 -3.902391096552925e-07 
-3.402132025465036e-07 -7.196431691702016e-08 2.368356475251135e-08 4.651655165675431e-08 5.773034127424513e-08 
-7.835620844445256e-06 8.352074585201072e-06 -4.186999439102212e-06 -4.846497581269316e-06 3.150183449734347e-06 
-3.542809235051758e-06 2.269888752234226e-07 5.440333439441704e-07 -1.601007883785456e-06 3.00574164978282e-05 
-3.843651584344434e-08 1.721766366651107e-07 6.402920927726974e-08 -7.940139403449445e-08 -1.164142718672695e-06 
1.32609556730928e-06 8.974501381054495e-08 -1.313213220907347e-08 -1.029192106328839e-07 -1.507038986680196e-06 
3.528411062213282e-07 -6.795837377335173e-08 9.341064372766729e-10 -5.498270069009497e-08 -2.388630519572526e-07 
-6.808806306532751e-09 -3.708717569552285e-09 8.539764090565563e-09 -1.015146295421694e-08 -2.878614345543412e-08 
-8.784577520584825e-09 -2.014620748122961e-09 1.238340284435509e-08 -6.05756494731647e-09 -7.679924095279276e-08 
-1.512594847641803e-08 -5.636995684527269e-09 9.378511785978632e-08 -3.546787792988555e-08 -4.08145610755179e-07 
-5.22013763612921e-06 -1.777700410624156e-06 1.077477496052929e-05 -7.780759089296224e-06 -2.087458851202087e-05 
6.532065589648155e-06 6.112081355034505e-06 4.857633238132994e-06 -6.805744933949206e-06 -1.679978698389689e-05 
-4.144996589060006e-06 -3.049825100948986e-07 -1.408966017347902e-06 -1.36133196329179e-06 2.232444494243927e-05 
3.773004292085291e-06 2.132326592370411e-07 1.401655697492422e-08 -6.705809975652083e-07 -8.641539921748302e-06 
-3.107223483627069e-07 -4.061514255472066e-07 8.147969999643283e-07 -5.899069337966384e-07 -7.401437369228845e-06 
-1.176739443615157e-07 -1.395621716869365e-07 6.354938615391801e-07 -1.821075946393418e-07 -3.160514639265481e-06 
-6.900171399060738e-08 -5.673339417676573e-08 -2.832796794934811e-08 -4.533356661786345e-09 2.847454358889901e-08 
-4.017884600800191e-07 -3.392378698857534e-07 -4.781612565523661e-07 -5.811027087936797e-07 4.471030048457184e-06 
-7.454536827680181e-06 2.028857809538815e-06 -3.052938213397732e-06 6.746576201375688e-06 -3.227053996339859e-05 
-3.335165602311284e-06 -9.328718010257949e-06 2.425435406850383e-06 4.943974369423844e-06 8.985760552555574e-06 
8.656555183710933e-06 -6.635863931206061e-06 5.39876336861677e-06 -2.52170437204542e-06 -4.427737000145308e-05 
8.880195406518691e-06 -1.156663782374565e-06 -1.299132038314349e-06 -1.193725443731813e-06 -2.338574232668651e-05 
7.549681252552741e-06 -6.66762005011749e-07 -9.507163232582764e-07 -5.700239483000716e-07 -2.1204639504499e-05 
-6.510540609550326e-07 2.764293320559319e-07 -1.437706404396419e-07 -1.30782184687893e-07 -1.077699995575631e-06 
-6.968896865945141e-07 -1.151536842315126e-07 -2.119661861015856e-07 -2.297786106451884e-07 2.014511080540034e-06 
-3.892491460978074e-06 -7.321827417131919e-07 -8.054387703051605e-07 -1.115104404207918e-06 1.402151900197832e-05 
2.087146786340034e-07 2.901798706905205e-06 -1.157053996016371e-07 -4.925267110954514e-07 -1.480235702556747e-05 
-1.451667417660767e-05 1.314416156685263e-05 -2.097832324092298e-06 3.208283536572532e-07 8.601957609322913e-07 
5.695753167815764e-06 1.175734062701348e-06 -4.045746025869908e-06 -1.452290889840926e-05 6.701988516962849e-06 
-1.604135326159867e-06 -1.989979439679573e-05 -8.668777744425363e-06 5.497029021766862e-06 -1.658222605111389e-06 
-3.514876833111117e-06 -7.869332203299691e-06 -4.31793389382278e-06 2.162574159362482e-06 -3.242653123167099e-06 
-1.315741841573589e-05 -1.013909936076616e-06 -1.021688120006781e-06 -7.972291966241695e-07 6.537423590243601e-06 
-4.006064165537488e-06 -1.222254084716555e-06 -1.96750601273317e-06 3.053751107442822e-06 -7.601782681655523e-06 
-6.057859535344407e-07 -1.100235175038563e-07 -1.673421066432862e-08 -1.977153170198746e-07 1.710849686597294e-06 
-4.541459328513618e-07 -2.015241360573787e-08 1.684952141042838e-07 1.593471370891381e-07 -2.597319411908684e-06 
-1.884098499818698e-06 4.431208984684923e-07 4.280061699896135e-07 -3.284140386177617e-10 -5.635198255549818e-06 
-5.564274340469722e-06 -2.487833037284609e-07 -1.862752567465611e-07 2.150443008903597e-06 -6.562758531885192e-06 
-1.187747909086854e-05 -2.376786507606523e-07 5.177169891793279e-08 1.344118722827658e-06 1.513533780502861e-05 
4.159671498855756e-05 -4.754806046861076e-06 -2.997787333922035e-07 -6.59261985112874e-06 -4.999135005007334e-07 
-1.840382959647777e-05 -3.915910600544343e-06 -3.72603539272311e-06 1.34864365404912e-07 1.057413805021893e-05 
-1.278058224520777e-05 -1.879476624522265e-06 -2.198541774080551e-06 5.790092672569085e-06 -2.014765578302753e-05 
-9.731419138793144e-07 -3.957491897812236e-07 2.711614573574575e-09 2.722168025951195e-07 -9.778587918687201e-07 
-1.974509595909389e-07 -7.989342831861247e-10 1.077495746222951e-07 -8.228493105114176e-09 -7.336706249693145e-07 
-6.046288760672458e-07 -1.098712798723559e-07 1.638506711752395e-07 7.972777717994496e-08 -1.202820767636458e-06 
-1.522871195196765e-06 -2.656338574546068e-07 -2.215932761593949e-07 1.433974800825192e-07 1.978432378586438e-05 
-3.541593657089942e-06 -3.765328422270817e-07 -1.758638043675263e-07 -9.519156191989045e-07 4.768987597520104e-05 
-8.345445670528929e-06 -1.734084888382902e-06 -3.634502135936142e-07 -1.884142015601218e-06 0.0001036236260824802 
-5.064520804762199e-06 -2.296305896847308e-07 -6.127724273320354e-07 1.450132743078218e-07 1.97440928187783e-05 
-5.967049290642139e-06 -1.014776750932919e-07 -4.439708169605844e-07 -1.81068821280455e-07 2.627513979186061e-05 
-2.210013574010873e-06 -1.022296938441263e-06 -6.252317691803677e-07 1.519414764718804e-06 -3.740163400274474e-06 
-9.743532972016684e-08 -1.996584478966004e-08 2.302005759905906e-08 3.891854527132917e-08 -3.918775511705962e-07 
-1.422311624976009e-07 -3.732603054180398e-08 3.760950822300565e-08 3.7374283374688e-08 -2.336715836235983e-07 
-7.021282524857685e-07 -1.812350694434807e-07 -1.30819090129503e-07 2.030597818943657e-07 2.235080553341502e-06 
-4.134252745133528e-07 -4.929962078108011e-08 -2.419227149089187e-08 -6.814024107701089e-08 5.019654503912893e-06 
-8.568122726664346e-06 -2.019264610138695e-06 -4.932053418093175e-07 -2.121198323354061e-06 0.0001088855061617268 
-4.684192107894898e-06 -1.94058881853109e-06 -2.931834159921865e-07 -1.52530487663918e-06 7.687287439172412e-05 
-8.70306390024833e-07 2.457019363864531e-07 1.172293299677488e-07 -9.106243210080052e-08 1.669091559312926e-06 
-2.990063588675688e-07 6.278769820841675e-08 1.768430225395781e-07 -9.467555463691293e-08 1.216061018736802e-07 
-7.858108953523322e-08 -2.885145999420217e-08 -5.548010749655404e-09 5.275787424682346e-08 -2.718307379599453e-07 
-9.792474195900434e-08 -2.729259297556754e-08 3.109163273286881e-08 -2.639703281220386e-09 4.082610983333742e-08 
-2.627045950738579e-07 -8.578805289506554e-08 8.074370647185531e-08 -9.010043289488071e-08 2.043744246259011e-06 
-3.326148411671713e-07 -9.98730798103231e-08 -6.692244345542836e-09 -8.884464932680712e-08 4.862048873453048e-06 
-1.387038074052526e-07 -1.5249950214067e-08 -7.582526958422836e-09 -1.561993802974017e-08 1.482203341314561e-06 
-1.776097347951466e-06 -4.420973124698562e-07 -5.010236528259825e-07 7.075646137704666e-07 9.201508239832012e-06 
-3.742973463635634e-07 -6.926960606934686e-08 2.818582556690767e-08 8.388146957391173e-08 -1.288921162568992e-07 
-4.87566152312246e-07 -7.871457368465841e-08 1.468012787062663e-07 -5.166620145030411e-08 6.279346085967915e-07 
-6.260916859155295e-06 4.165208682541584e-06 -3.195661107560649e-06 -3.042136452714339e-06 1.527368642291255e-05 
4.267087217310177e-08 -8.116902777865792e-08 -1.245156419745556e-07 -4.124037573096623e-07 5.607995269759694e-06 
-5.413711297849672e-07 -2.589587451729415e-07 -4.313823945783171e-07 -6.198965768162739e-07 4.838022968212232e-06 
-2.853526573338433e-08 3.281531891176075e-08 -4.713130173694823e-09 8.696902488237241e-10 -3.600828942754878e-07 
2.312090251929421e-07 6.426834577984983e-08 -1.094735516732234e-08 2.607472660652284e-10 -6.915850124258385e-07 
1.843699841338981e-07 3.550113772934677e-09 -3.546160460314597e-09 -6.451943893988912e-09 -2.071407055467839e-07 
-8.626796091640481e-09 -3.538053086888186e-09 -4.66327636060523e-10 3.14838710436087e-09 -6.128788358288704e-08 
-6.098416844483284e-08 -9.16153947117889e-09 1.664523728173461e-08 1.290347601929344e-08 -1.711246179540596e-07 
-9.065546703356925e-07 2.001002916002774e-07 1.292309427063812e-06 -1.442719541249496e-06 -2.468081932655438e-06 
6.127388090406774e-07 1.123644755514038e-06 1.604604447809828e-06 -8.915675557077928e-07 -1.245660995661225e-05 
-3.297602757938316e-07 -1.444392154329526e-07 -4.661579942183729e-07 -8.375173723080156e-07 6.613283795301437e-06 
-2.554731762840383e-07 7.121430265831958e-08 -8.320101606274122e-08 -3.998370995877613e-08 1.618196555591384e-07 
3.342879174653565e-07 -3.099964409934401e-09 1.514952430503444e-11 -2.151453345652456e-08 -8.77152170881666e-07 
-1.383095424525145e-07 -1.388098362840947e-07 1.581560755424776e-07 -1.183848773335834e-07 -1.092445928649623e-06 
7.697316638614695e-09 -3.425378784557838e-08 6.163295582714038e-08 -4.869228490528531e-08 -4.067471376887114e-07 
-7.444898019955949e-09 -1.378101194271547e-09 1.125305342485625e-08 -5.339034483282544e-09 -1.313025514383147e-07 
-4.954441845001256e-06 -2.667986336274707e-07 1.151555137456812e-06 8.476049147015423e-07 -1.45672634677399e-05 
-3.313703209894393e-07 -2.91385555690617e-07 4.449556629964771e-06 -3.394167689144559e-06 -2.477873305317557e-05 
3.574415270993299e-06 1.633719855485237e-06 -2.447809147836426e-06 1.787078288128107e-06 -1.316862912179989e-05 
-3.381012922747481e-06 -7.864646337112853e-07 -2.105147300899927e-06 1.501688396740378e-06 7.482647930632099e-06 
1.026987609939069e-06 2.014807642933692e-07 -3.189214123845084e-07 -9.828293965653868e-08 -3.997890127616231e-06 
4.708754472146032e-08 1.188626681629081e-07 -1.146373591326302e-07 -2.442159716056135e-08 -4.031341297237556e-06 
-1.653321859361184e-07 2.669186266082922e-09 3.921403687489356e-08 -2.415128643796085e-08 -5.117780527409095e-07 
-1.958124611862041e-07 -4.096779731090615e-08 -4.990390600613244e-08 -8.905011103185985e-08 6.272553100114389e-07 
-4.298390756581427e-06 8.859077669975613e-07 -1.338575695563307e-06 2.81626219869477e-06 -1.419478123028689e-05 
-3.210604210544019e-06 3.993707029269915e-08 2.09201081793249e-06 -2.146723006048183e-06 2.435235704178629e-05 
-7.725654139187394e-06 -5.781194053651765e-06 -7.786177120146325e-06 1.596379267541664e-05 -2.984036746807375e-05 
1.7332980948748e-05 -5.578841850747306e-06 5.44222038834629e-07 -1.057899483607658e-05 -1.186003168348623e-05 
5.533584781368504e-07 -2.14229145561781e-06 -2.914442441629173e-06 -1.190392622093291e-06 1.130439310799336e-05 
5.070727523131705e-06 -4.090545755587162e-07 -8.828148260195126e-07 -1.560551153783611e-06 -1.437036658696858e-07 
-7.184490165697053e-07 -5.322333604963391e-08 -4.37723131112801e-07 -7.672458088189044e-07 4.900430013351825e-06 
-2.145321139685717e-06 -4.163064343559067e-07 -4.79798839890795e-07 -7.577325826816889e-07 8.668052101201794e-06 
-1.899701862295477e-07 4.138685627900034e-08 -9.00726530742364e-08 3.520633521574093e-07 -5.85152077547195e-06 
-1.201799000569379e-06 5.769620001423111e-07 7.680360627915022e-07 -2.570599822190167e-07 -9.831698959323174e-06 
-1.44333453716561e-05 -1.876457152400058e-06 -4.554904974253279e-07 7.636679985848615e-06 -2.726925926662532e-05 
1.208612454036915e-05 -5.307578332818072e-06 -2.359873650044861e-06 -1.199473368218274e-05 -9.53844247164734e-06 
-4.329889488195382e-06 -1.179048764334616e-05 2.578611915145018e-07 1.10684806920482e-05 -2.619491677942262e-06 
1.183692578318753e-06 -2.603774659731701e-06 -1.827063353557666e-06 1.887501903897687e-07 -1.372249085289858e-05 
-9.460414660400872e-06 -1.189788942658256e-06 -1.73812711076609e-06 1.976339229748465e-06 2.217991033435316e-06 
-8.386845296761244e-07 -3.527012941311147e-07 -1.366492710391203e-07 3.338507566595729e-07 -8.068196649163834e-07 
-2.23583878973316e-07 -4.628464699768389e-08 2.318759794356555e-08 1.562021204960808e-07 -1.243621242948119e-06 
-6.083732190430853e-07 -1.359393893029648e-07 2.923197006271883e-07 5.516091523880724e-08 -1.912367092400817e-06 
-8.123620819948368e-07 8.304649126176076e-07 2.611878992956404e-07 -6.424088985103957e-08 -4.431966003786748e-06 
-4.327223985244394e-06 -3.804199902060864e-06 -6.068305052220106e-07 4.46426891430598e-06 -2.988413155713109e-05 
-1.590941939581687e-06 2.780220719204518e-07 1.198939670821565e-06 -1.6627042375822e-06 -5.481926182588798e-06 
3.301469462769065e-05 -5.666820400517546e-06 1.847731294913395e-07 -6.365377890230876e-06 -2.233250914462545e-05 
-1.655252205027547e-05 -1.757900525038396e-06 -4.106866730438376e-06 5.186198521257664e-06 2.48758687105485e-05 
-1.957279972275737e-05 -8.769713063531316e-06 -9.304503419523617e-06 1.546285833614689e-05 -2.166494415854686e-05 
-8.201957236697456e-08 -5.743853725569705e-09 5.306908343197552e-08 4.110263231844183e-09 -4.062100045498017e-07 
-1.785428544447902e-07 -1.91578781150442e-08 1.688075231398559e-07 -5.5522823635633e-08 -8.699001466737655e-07 
-2.774110701536735e-07 -3.685281523513281e-08 1.312179929566672e-07 -2.136966454040185e-08 -5.191322536097196e-07 
-4.981610436527441e-07 -1.425001196585525e-08 -2.780189795607067e-08 1.572091436249451e-07 6.126973747617031e-07 
-5.002866723126374e-07 1.837115501148117e-08 -2.299754528701938e-08 2.115650696625365e-09 2.451866893906485e-06 
-1.498633494580656e-06 2.365885826780308e-07 -1.040249609254372e-07 -6.688275536519433e-08 8.459743127665568e-07 
-7.027053192744315e-07 -3.710486516473908e-07 -2.966832107225781e-07 8.589019178309048e-08 4.955352654379773e-06 
-5.520088127374109e-08 -5.198217241188284e-07 -1.413832805637529e-07 1.45570617834185e-07 5.85133407372161e-07 
-1.171809968007558e-07 7.130869815110501e-08 -1.295652732421103e-08 7.670034687692975e-08 -6.512105863827777e-07 
-1.619871240772057e-07 -4.289951242493622e-08 -4.676453594579566e-09 9.334245655423951e-08 -5.123516613437604e-07 
-1.53337123617433e-07 -4.733123725990825e-08 2.306052519330973e-08 4.964081851069805e-08 -3.050809247236391e-07 
-2.719763002613929e-07 -7.253537893060712e-08 2.166748071380251e-08 -2.662598237438051e-08 2.171512272437271e-06 
-3.765177071537508e-07 -9.368724130133487e-08 -3.420366609800325e-08 -5.103854441088705e-08 4.82750871568254e-06 
-1.795605807327315e-06 -3.370347809257495e-07 -5.967604176917608e-07 1.092039905754267e-06 1.900510690125683e-06 
-8.417333791833421e-07 -5.450076292815625e-08 -1.932598415967457e-08 6.720156609661707e-08 6.454440374970752e-07 
-1.478061129885372e-06 1.930661840094024e-07 4.916910381509795e-09 3.079714183125134e-08 1.590794593753549e-06 
-4.145909944759049e-06 1.86688573850007e-06 -1.335268703293667e-06 -1.946778329296711e-06 1.389189861080838e-05 
-5.139531480719305e-07 -4.112250698818572e-07 -3.675527040645515e-07 -6.671270947051761e-07 8.357310412513422e-06 
-2.081058528206665e-07 -1.479270548867235e-07 -2.549738978600724e-07 -3.539925424920772e-07 3.020482101568015e-06 
-1.511213947894041e-08 -3.22844874606056e-09 -4.263446089215225e-09 -1.957222735131891e-09 -2.130847483221555e-08 
-2.463562700612672e-09 1.780516284463574e-08 -2.182150298016258e-09 7.322716923715177e-09 -2.314514184284336e-07 
5.187113718850899e-08 6.732986633791834e-08 -3.215033187838706e-09 4.096570345320248e-09 -5.756162221163838e-07 
4.562476630715074e-08 -8.929492235499444e-10 -2.439998024528326e-09 3.902221876468854e-10 -1.642247482089289e-07 
-1.425259367532126e-08 -2.889038584139901e-09 -7.589969310462719e-10 5.414308796727135e-09 -4.926973113822828e-08 
-1.164398123013147e-06 1.786780092912676e-06 -1.111318519661981e-06 -9.235598699496071e-07 -6.029242950528514e-06 
-1.447981739669061e-06 1.816884713934997e-07 1.963586537294475e-06 -9.980738507138108e-07 -5.819458450311727e-06 
1.250310475042121e-07 -9.015299251565113e-08 -2.012714449019766e-07 -3.56625940693878e-07 3.460486017802845e-06 
-9.761541009434163e-08 -3.272502644444875e-08 -5.680132939590126e-08 -6.12107484054296e-08 3.651343139102804e-07 
-5.407462012334452e-08 4.665466351927577e-09 -3.828024776373306e-09 1.758629241213912e-08 -2.483027740823204e-07 
-9.095247898011968e-09 -1.493473119851323e-08 -5.334775382022896e-09 1.437943302448329e-08 -1.562653527810147e-07 
1.455921163511478e-08 -1.798782067728679e-08 1.889646062050226e-08 -1.761795750810549e-08 -2.049160281418639e-07 
-1.33845711371058e-08 -4.616551726505766e-09 -1.839164570872311e-08 4.677219704377809e-09 -3.424259298133123e-07 
-2.620224569050475e-06 -6.950967921639772e-07 9.641381238179534e-07 2.145222778340143e-06 -2.235329982183812e-05 
-2.21112103566513e-06 2.395290738573664e-07 2.369841605510558e-07 6.877276541238516e-07 -7.803719089138862e-06 
-2.574859327208329e-06 -4.126077387374687e-07 -7.66263131043685e-07 1.967106295633535e-06 1.080767234954234e-06 
-9.528684080061918e-07 -2.640631548903792e-07 -4.61604731696137e-07 2.169845068603171e-07 6.36514519885464e-07 
-3.697407875006408e-07 -3.993278286058993e-08 -2.426245428293258e-07 -3.752842422340607e-07 1.998493887234619e-06 
-3.54210430998016e-09 2.268602344895985e-08 2.233938961290235e-08 -3.214018210354865e-08 -3.629907929739453e-07 
1.267861289747732e-07 1.665329042266046e-09 1.089537691178581e-08 -1.698147336016044e-08 -4.049694396335186e-07 
8.375000909080961e-08 -9.55529293176637e-09 3.280321075921977e-08 -3.602835180790811e-08 -3.397279281224469e-07 
-3.498104981116383e-06 -5.181653268470901e-07 -6.351895305027785e-07 2.112528535623992e-06 -7.772148514207147e-06 
-5.389451184956585e-06 -1.112725441044417e-06 -1.435152957026954e-06 2.500728465179087e-06 -3.5515560675562e-06 
-7.446625356563639e-07 -4.06747427092586e-06 -4.25153014094449e-06 -8.673336301166145e-06 5.912186396264214e-05 
-3.119568217255857e-06 -3.539293876705076e-07 -1.328764337259085e-06 1.468280442075022e-06 -2.279989493962296e-06 
-1.421699353037792e-06 -1.777469131942484e-07 -6.000850408363437e-07 2.121613431621e-08 2.705224331595593e-06 
-1.113462350499182e-07 1.706301420382685e-07 -9.11452388819804e-08 -3.058310650843513e-07 8.674100324257451e-07 
-2.603558203004321e-07 1.000015421548142e-07 -2.462405394118805e-07 -4.561765876833667e-07 1.446199103052112e-06 
-1.162528886079632e-07 5.131553558787838e-09 -3.227295419482425e-08 -6.703877715188027e-08 3.20914517547629e-07 
-1.138814799877965e-06 1.020514058722315e-07 -3.189545800742713e-07 7.56203327186457e-07 -5.139490145316999e-06 
3.622622368307059e-07 -2.529325654016566e-07 -1.028700764848525e-06 2.630955176562192e-06 -1.337763372145646e-05 
-1.320704123152541e-06 -4.380046557376902e-06 5.252989349479727e-06 -7.149394163437335e-06 1.658139209010644e-05 
1.650327508657052e-06 -9.098682686721275e-06 5.233549079157706e-06 -1.279414440305648e-05 1.804851045226696e-05 
-1.120270298039821e-05 -5.905583543422754e-06 4.966397050035148e-06 -8.136524091344004e-06 4.297273855426396e-06 
1.323613516974919e-06 -8.961488324101051e-07 -7.244278227233781e-07 -2.546754629840743e-07 -8.934697970991561e-07 
-1.140304383235718e-06 -2.689343856297472e-07 -8.144233666998847e-07 -9.316538873191906e-07 1.216861939867377e-05 
-1.574314447046348e-06 -6.138924729046051e-07 -9.19683551375023e-07 -1.311695036881534e-06 9.643650720646428e-06 
3.954607320517878e-07 4.363214134511025e-08 -6.534009810939609e-08 5.626537850222938e-08 -2.845592105228556e-06 
3.744704744898415e-07 -8.742712358096741e-08 3.990933239699327e-08 1.125144188409913e-07 -5.004035288263586e-06 
1.471980592156225e-07 1.564704730570054e-07 1.262357212908643e-06 -9.791438345631715e-07 -1.04354360830793e-05 
-4.040246558812657e-06 -2.419425986743993e-06 1.195732069457087e-05 -9.710074288066564e-06 2.455399932140394e-05 
-5.960093254904254e-06 -3.343790995257436e-06 -5.047891580556123e-06 -1.164580669795677e-05 2.617990445745689e-05 
-1.995992498284107e-05 -1.296168688963779e-05 1.584636170389875e-05 -6.327831436511693e-06 -8.701930579912471e-05 
1.659286287575518e-05 -3.842403467500556e-06 -1.214870348780981e-06 -3.808591615001255e-08 -1.738389337730138e-05 
-4.735994886035211e-06 -1.191753075665446e-06 -1.567479589804219e-06 2.46728807470156e-06 -2.9379312886478e-06 
-2.156706024598174e-08 -4.232182878948946e-08 -4.011430823798881e-08 1.322379340470964e-07 -8.66011068528142e-07 
-2.13354864255325e-07 -7.672881969263449e-08 5.182143661156186e-08 1.309438045776841e-07 -1.148143997204391e-06 
-1.739131688796975e-07 -1.016111223547932e-07 1.306358848937796e-07 8.33736973290714e-08 -2.010455057055764e-06 
-3.669404279418753e-07 3.939060636729658e-07 2.560478874353845e-08 1.609437231147485e-07 -3.073223650596809e-06 
-6.819320031740347e-07 -1.954382943264185e-07 -1.256905712251294e-07 6.338881151923233e-07 -3.134981824428983e-06 
-4.056180022775552e-06 1.429244061243748e-07 1.611759570894365e-06 -2.57003324271971e-06 -8.857838405762295e-07 
2.979920033664878e-05 -5.193777728640081e-06 3.746739839341981e-07 -6.847829940909247e-06 -2.744585587163689e-05 
-1.977703194929624e-05 -1.019232894653999e-05 -1.069625757891374e-05 1.584863189330956e-05 -2.057713784032098e-05 
-8.913462525765801e-08 1.136544453000812e-08 2.213044407372636e-09 5.35034928449009e-08 -3.856989093280351e-07 
-9.781779182527655e-08 -1.307908841985699e-08 4.16705893090027e-08 2.378021718260797e-08 -3.925673942070568e-07 
-1.44712419104592e-07 -1.239878837218485e-08 5.400738014097126e-08 2.931288726921179e-08 -5.779312743008582e-07 
-2.143333980350413e-07 3.378171965186897e-07 3.785384095572793e-09 1.04489570904101e-08 -8.180207033138424e-07 
-7.332437645291059e-07 -1.154998981225125e-07 -1.709813997911127e-07 3.361241291744637e-07 1.465062102118462e-06 
-1.664484914858299e-06 -2.68150782207407e-07 -4.642873636341042e-07 7.877948482315928e-07 4.062811669294967e-06 
-3.015886071083316e-07 -5.934883670247914e-08 -5.741547571255958e-08 1.273797657408576e-08 1.125965264471954e-06 
1.255119114498588e-06 -9.113055148367007e-07 -8.112043260985938e-07 -2.863347539008781e-08 -1.29960229879373e-06 
-1.944933909660497e-06 -2.603953907380063e-07 3.200703280211811e-07 -5.767168173382264e-07 1.257585007685264e-05 
5.08902693165908e-08 -5.54169564289183e-07 -2.101390261544152e-07 -1.700199494326948e-07 1.782161239613118e-06 
-8.236332726399548e-08 -9.474035441742696e-08 -1.309414580982837e-07 -1.619288884012845e-07 1.429267381973207e-06 
-2.624799672518808e-09 -7.997969121459902e-09 -7.610566054817896e-09 -4.149816226224952e-09 3.903721321540206e-08 
6.280759969209107e-09 -3.244637345034387e-09 -1.487333720276422e-09 2.196742753793389e-09 -5.049127520808586e-08 
1.366683938818696e-08 1.127709194852913e-08 -1.246333823578539e-09 1.187277800706666e-09 -1.291185686219712e-07 
6.524650528660283e-08 -6.337365544246311e-09 -2.069653147094538e-09 3.966087847005471e-09 -2.461793058439861e-07 
2.304479228191461e-08 -6.665271721711977e-09 -6.678342444346581e-10 4.960610350078961e-09 -1.267461151391927e-07 
-1.361710429442706e-06 2.384702531051285e-06 -1.849216331769125e-06 -1.307316353271036e-06 -8.286848744274891e-06 
-6.284900931876492e-07 -2.168912232810219e-07 6.355969333350315e-07 1.972007828418121e-08 -4.961454247234531e-06 
-3.776356077159258e-07 -2.436208483330541e-07 -2.514774481743374e-07 -2.829087052267653e-07 4.02414633659054e-06 
-1.541414334494996e-07 -1.351366367942278e-07 -1.920708860791125e-07 -2.025330179808282e-07 1.437482390091942e-06 
-2.047874862743401e-08 -4.360095733893586e-09 -3.529852511826944e-09 7.828807363949722e-09 -5.737375624836729e-08 
-2.082419987337403e-08 -6.3549665081611e-09 -5.102474426032477e-09 6.853584383761071e-09 -4.009662629896452e-08 
-1.965394240091932e-08 -4.905133787773711e-09 -2.547328248030334e-09 7.188566339736002e-09 -6.679166692892536e-08 
-9.146534620248685e-09 -1.211946435981198e-09 1.414383939551014e-09 2.02619717023823e-09 -3.930320979116768e-08 
-2.852366622223855e-06 5.641421233238654e-07 -3.862347314005958e-07 6.394723902146551e-07 -1.683517212307983e-05 
-8.207901463480758e-07 2.975782318617516e-08 2.659268603797161e-07 2.077095626221058e-07 -1.951837427240218e-06 
-4.549229970479413e-07 -6.21257914327158e-08 3.488502257484956e-07 -1.506496226913279e-07 1.651598277022284e-06 
-1.792860634351168e-07 -1.354811219835744e-07 -1.823973523953151e-07 -1.862218478741299e-07 1.674863412348265e-06 
-2.287500143753031e-07 -9.701375828434426e-08 -1.444598349938996e-07 -1.228907323758561e-07 1.152162722023146e-06 
-3.38340669627332e-08 8.313450120332625e-09 -7.09944075991031e-09 -1.101031990138168e-08 -2.120123977759467e-08 
-8.026520016025313e-09 1.342087764484798e-09 2.21832384337772e-09 -6.37051825614796e-10 -5.731848838201406e-08 
8.209904245104767e-07 -3.534915210719496e-08 -6.823776771293903e-09 -6.157308902855833e-08 -9.133305095797498e-07 
-1.007647057837881e-06 8.907792846336189e-08 8.381008478499592e-08 1.813801824640271e-08 -5.646394441403275e-06 
-2.223440966687282e-06 2.013434436515636e-07 -3.312717065377608e-07 2.446943278281846e-06 -1.52141603265385e-05 
-1.31256852781953e-06 1.036740278934632e-07 8.165719792635799e-08 5.75396420352891e-07 -9.924032993136421e-06 
-4.807403038732841e-07 2.774555554541288e-08 -4.883558927499394e-08 4.967267597951639e-09 2.019267771530968e-06 
-5.647028212488508e-07 -1.094038192527073e-07 -2.168891426774299e-07 1.183072895865089e-07 8.753323229911617e-08 
-2.293070393516757e-07 -5.532782924521001e-09 -1.201183368115832e-07 -1.908711138517891e-07 1.354295915547733e-06 
1.974515112337612e-08 1.154141749671051e-08 2.079322251437233e-08 -7.573472019438721e-08 -1.587860746921083e-07 
6.652221108046622e-07 -1.391682602257277e-09 -4.204181449185404e-09 -5.606875723265107e-08 -1.009837298820403e-06 
-1.470079469801502e-06 1.6259451343084e-07 -2.7836966504365e-07 4.526006231208504e-07 -4.34094977687253e-06 
-2.457740229016281e-06 -3.567445516820723e-07 -9.146561061341744e-08 1.429576246150066e-06 -9.288679800780524e-06 
-4.612830823007397e-06 -3.173044499737571e-06 8.7766793997412e-06 -1.012596482340657e-05 -1.039983833427185e-05 
8.143950384794457e-06 -2.038324046810696e-08 2.040601004931771e-06 -3.501283223489427e-06 -7.463368151393868e-06 
-4.14957297361198e-06 -1.072536281054911e-06 -1.014532213053109e-06 2.261882677838768e-06 -5.069194829053129e-06 
-1.416888270006709e-06 -4.543468849397805e-07 -5.947330114124059e-07 7.527622543779691e-08 6.00128760590578e-06 
-1.003758503795976e-08 1.107344207769681e-07 -6.302606894148173e-08 -1.434931574302673e-07 2.079967780463655e-08 
1.607854575108193e-07 -2.887365768120891e-08 -2.420082090752176e-07 -3.855324044876604e-07 1.570106929353428e-06 
-6.843747755144947e-07 -3.134996555303067e-09 -3.249726018680247e-07 5.702768945800993e-07 -2.913844891337468e-06 
-2.653844857339776e-06 -3.566831547802018e-07 -6.679469065235931e-07 1.831971410738383e-06 -6.025011074605283e-06 
-1.038358018142358e-06 -6.468352492309699e-08 1.336261339255848e-06 -1.112579051752282e-06 1.245991820845479e-05 
-1.86504264344505e-05 -1.080205254006491e-05 3.323525205059437e-05 -2.181064972264007e-05 -4.34480512185744e-06 
9.369596052599989e-06 -8.069946364505819e-06 2.109633636923213e-05 -2.65830562821278e-05 -4.922343549777479e-05 
1.3599550096763e-05 -4.178174239400348e-06 -2.455358210809167e-06 -2.520305341105052e-06 -2.205171599389065e-05 
-7.240462718451868e-08 -5.918856429604993e-07 -3.323111497319709e-07 -2.880396089995868e-07 4.36878115446018e-06 
-2.093966197709052e-06 -5.832274280875262e-07 -5.594894009484492e-07 -4.141730633909892e-07 3.48420970804587e-06 
-2.001210259173767e-07 7.135813105578844e-08 -1.171524326335038e-07 1.986442569114916e-07 -1.499314734099194e-06 
9.842777588163111e-08 -4.192025937232712e-08 -1.184231826793072e-07 1.945102669323742e-07 -2.723275806524513e-06 
5.080708875217763e-07 -8.094651451478015e-08 2.977119130753532e-07 -1.119851328644111e-07 -5.605081041053414e-06 
-2.871909779706566e-06 -9.987281890083563e-07 2.794713161127674e-06 -1.300214134854606e-06 -1.324198419837277e-05 
-1.45502257909016e-05 -3.514895669283171e-06 -1.422395034516589e-07 5.162774111585727e-06 -1.430988278521918e-05 
3.439622077088478e-05 -3.375547094872103e-06 -5.11419711628445e-06 -6.487150097800782e-06 -5.028283686932939e-05 
-7.233019188158141e-06 -1.88828467975757e-05 -7.655969720981366e-06 1.18621696525289e-05 -7.233274900679754e-05 
4.375394171038803e-05 -1.053866790028536e-05 -2.153967605283904e-06 -2.664240667880053e-06 -1.911492193532313e-05 
-2.652395901844762e-07 -4.352470999001697e-08 -7.321907152093411e-08 2.46987233827838e-07 -1.198935759227612e-06 
-8.172410713417422e-08 -1.026326436734724e-07 -4.965061577268186e-08 1.974050534627033e-07 -1.341067102101421e-06 
-9.049826491955239e-08 -1.65399116162065e-07 -1.948253237330103e-08 2.228735688519234e-07 -1.838650352326611e-06 
-1.805238532301406e-07 2.519692796125319e-07 -2.877977442852052e-08 1.25259003829543e-07 -2.118190381781519e-06 
-1.782195834365181e-06 -2.179173258355666e-07 -5.658832388416496e-07 1.234272193512022e-06 -2.511590520568105e-06 
-8.154694666365181e-07 -2.580563790549677e-07 -3.198043032213193e-07 6.647062696938811e-07 3.251690192136044e-08 
-4.649350633449946e-06 1.057977028112129e-07 3.69688654202528e-07 -4.679276788595409e-07 2.780956212591868e-06 
4.736062639339945e-05 -7.449558030282437e-06 -1.611617409716965e-06 -7.787241967937838e-06 -4.243661206728416e-05 
1.054482641082118e-07 -3.37023317425274e-08 1.156210630039024e-07 -2.239871752123344e-08 -2.035642972848956e-06 
4.920603759756971e-07 -1.682375170268166e-07 -9.518736649762849e-08 8.410413559760825e-08 -2.200169447086273e-06 
-3.050097459517768e-08 -5.477523899537723e-08 -3.982341809745573e-08 -2.882671844559934e-08 5.707876036948089e-07 
-6.53218024024138e-09 -3.974791572288331e-09 -3.037958853371607e-09 8.089675386149818e-10 1.481167561873076e-08 
-1.661780404683533e-09 -1.600844115705607e-09 -8.924314026384084e-10 2.05484553130569e-09 -2.680053058385332e-08 
-6.839626974691384e-10 -1.35794560527027e-09 -4.772835205801686e-10 1.81289716799934e-09 -2.602456739106504e-08 
8.555100142835057e-09 -3.826892763562055e-09 -1.108158988276241e-09 2.763807889195728e-09 -5.227163014859589e-08 
1.539420747496302e-08 -1.033165956551824e-08 -1.915560416519601e-09 1.092285242982314e-08 -1.949006309757708e-07 
-2.792478409129455e-07 3.992010925301615e-08 7.013096622833393e-08 -2.002072712610377e-08 -9.505748997518859e-07 
-3.202756166474706e-07 -2.802641115043356e-08 7.078778719096409e-08 1.342141869556644e-07 -1.45830482619927e-06 
-4.424557707253049e-07 -3.006481068119207e-07 -2.500721083033188e-07 -2.792198827451441e-07 4.959273706765657e-06 
-1.697991095819606e-07 -1.671433060492386e-07 -2.392206365695503e-07 -2.677157602682431e-07 1.828666059608902e-06 
-6.829048348593463e-09 -1.725026793387341e-09 -1.279931876853911e-09 2.525898621857514e-09 -1.280315513433539e-08 
-5.569093514991687e-09 -1.312487149333537e-09 -9.448740898204097e-10 3.048356505052586e-09 -1.874621863321619e-08 
-4.637960277658023e-09 -1.252895996171879e-09 -9.813307194708437e-10 1.051458834354056e-09 -7.402818123251869e-09 
-7.111622802268383e-09 -1.146254706037061e-09 2.006402703567759e-09 -1.84238625500614e-11 -2.327234165653994e-08 
-3.66064741154344e-07 3.681657649608129e-07 -2.407785972318014e-07 -2.669719477569275e-07 -2.885160447189143e-06 
-2.09620594242571e-07 1.089015322914155e-08 9.092809200839383e-08 -1.86532776973725e-08 -6.784721267195515e-07 
-8.330900484891776e-08 1.467487538486232e-08 7.154795822351323e-08 -4.406445094726236e-08 2.448755525477879e-07 
-9.439346992940322e-08 -8.925443958658322e-08 -1.295441863389333e-07 -1.247135567509165e-07 9.470233148259812e-07 
-1.058203999191666e-07 -7.891661481314159e-08 -1.058900877338928e-07 -8.780394569179017e-08 8.225289530323984e-07 
-9.059944722841299e-09 -1.469281080745814e-09 -2.284400099516023e-09 2.893768803906688e-11 4.944228341869216e-09 
-3.878720962483571e-09 6.435428108185522e-10 6.084669691808932e-10 1.02183108352806e-10 -1.533880104332662e-08 
-7.284286310645733e-09 2.26610609032038e-10 3.813704817135582e-09 -2.350538282667782e-09 -3.383263074470479e-08 
-1.489350566108969e-06 1.242238056904705e-06 -5.988547306212813e-07 -7.563522325152502e-07 -4.135813186739578e-06 
-2.25964873177238e-07 1.95565454802105e-07 7.252016035378471e-08 -1.209827144050723e-07 -1.018893247415531e-06 
-2.367018442341264e-07 5.201646585956484e-08 9.137690630256932e-08 -7.847986757344205e-08 6.926035865640673e-07 
-1.367296739195971e-07 -5.042664014170371e-08 -1.57763749240784e-08 -7.338958464786471e-08 2.987936213798018e-06 
-1.097927734640993e-08 -1.107442018819754e-08 -3.167042078768725e-08 -3.151049391076474e-08 3.908842458934616e-07 
-1.169125443742799e-07 4.032393872205742e-08 -4.738982063799185e-08 -5.567091350597759e-08 4.492215855833614e-07 
-1.914652042664938e-08 1.222416495574503e-08 -5.351050269441613e-09 -1.186008118351641e-08 1.224989148610041e-08 
-3.98507318767153e-09 3.517777046750901e-09 5.869797261559414e-09 -4.512641812137248e-09 -7.030586328977519e-08 
-2.391361062589011e-06 1.203362756019315e-06 -1.044834448134279e-06 -7.715694157323548e-09 -4.277186830351978e-06 
-4.947712648650224e-07 3.887600811445197e-07 -6.605452776690302e-08 3.408614467553673e-08 -2.178111282272444e-06 
-3.413208924674162e-07 2.945479369501601e-07 1.590272765791992e-07 -9.245763011111549e-08 -2.161163102564641e-06 
-1.054057183527417e-07 6.398836019274691e-08 3.276050442971324e-07 -2.244699091791882e-07 -4.495144320161684e-07 
-8.851502984369921e-08 5.653842935126596e-08 1.007650672720075e-07 -7.776549318252893e-08 8.568941116109345e-07 
-2.157806624644298e-07 -1.709388660063294e-07 -2.783562545409737e-07 -2.085953680734545e-07 1.405186379123707e-06 
-1.117428279295464e-07 -6.454524504718245e-08 -1.305316314353503e-07 -1.535733480537381e-07 9.940408615743051e-07 
1.921827088474829e-07 3.540957527536142e-08 -2.705523240124005e-10 -4.546571714928447e-08 -4.216369988696229e-07 
-4.095519452217859e-06 3.9854982786659e-07 -2.166083238641058e-06 2.623271714522964e-06 -4.038646811856581e-06 
-1.923250894359725e-06 1.539746734136532e-07 -9.638979556330039e-07 1.190795887245634e-06 -4.305350536164898e-06 
-8.331915590204208e-07 9.334402331770535e-09 1.584394417904948e-07 9.219130085188197e-08 -1.384319775470248e-06 
1.676865303515852e-07 -2.751442323814724e-07 1.977172689384787e-06 -1.533637897067044e-06 -5.034910951229077e-06 
4.434999493657296e-06 5.83736272013216e-08 1.007018413686854e-06 -1.039511308022418e-06 -9.114399369412072e-06 
-2.374272664257331e-06 -8.463581934771501e-07 -5.367146348326503e-07 1.051788775722287e-06 4.397026890340735e-06 
-1.600752396369643e-06 -6.526250487399228e-07 -6.130513867344974e-07 -3.899230488312302e-07 1.419085960622189e-05 
4.647918562638918e-07 2.982280143785557e-08 -9.222157450859562e-08 -2.010375236076109e-07 -6.754829076258e-08 
-1.502405800253871e-06 3.310951495629817e-07 -3.22116957060611e-07 5.230319302299259e-07 -2.494132999164046e-06 
-1.156788997345137e-06 5.79394064573933e-07 -7.652183324107881e-07 3.122711439986454e-07 -4.805721550760001e-06 
-1.26543642546876e-06 1.517576571561026e-07 -2.979124851708453e-08 5.245706332008731e-07 -5.86974036889685e-06 
-1.075241795647668e-05 -3.635548938002976e-06 1.387946970635181e-05 -8.1927730996759e-06 -3.493097438005734e-05 
1.622628261485082e-06 -5.179079407699841e-06 7.42906673453438e-06 -2.783742781222979e-06 -4.17004226834021e-05 
3.10669599522705e-05 -3.007424292488326e-06 -4.054504956360177e-06 -4.344444149956488e-06 -4.113847888358823e-05 
3.571730079379198e-06 3.072443029176611e-07 -2.663370026381212e-06 -2.727501941539931e-06 4.080493404265594e-06 
-5.509049146391386e-06 -1.141130697973598e-06 -1.138398154694704e-06 -1.618258388656205e-06 5.212608379499001e-05 
-1.504702533886317e-08 3.969483477499447e-08 -6.943301737160787e-08 8.025172490902958e-08 -1.452412893137857e-06 
3.65351461127079e-07 1.947248561338194e-07 -1.504769463743969e-07 -1.427787992738171e-07 -2.770205616149981e-06 
6.006465822952974e-07 9.104448080255278e-08 2.207544264892069e-07 -4.097968115584301e-07 -4.812346527011103e-06 
1.124736477132651e-06 1.374540326028497e-07 5.196412075931161e-07 -6.856477989911554e-07 -6.917113566904184e-06 
-3.354577384903815e-07 -4.23033643698448e-08 4.319123313608944e-07 -2.219994698532931e-07 -7.927722188488331e-06 
-5.675078715668273e-07 -1.472410901527043e-06 -5.719642442470417e-07 1.286283654963053e-06 -1.812890926875717e-05 
2.738997175106071e-05 -1.874085174977044e-06 -3.426460027836577e-06 -6.172564955137766e-06 -3.619478582701799e-05 
1.379011669130245e-05 -1.529754780643149e-05 -5.352042181131333e-06 -4.968442212233902e-06 7.141380398518749e-06 
-9.415080061441995e-10 -8.166218875310573e-10 -3.127345039177693e-10 2.872383050467878e-10 -4.42075306214619e-09 
